net
{
	propagationenginegenerator1791944048146838126L = "edu.ucla.belief.approx.BeliefPropagationSettings@7c9de15d";
	recoveryenginegenerator6944530267470113528l = "edu.ucla.util.SettingsImpl@76faf746";
	node_size = (130.0 55.0);
	huginenginegenerator3061656038650325130L = "edu.ucla.belief.inference.JoinTreeSettings@66867263";
}

node DebtIncomeRatio
{
	states = ("Low" "High" );
	position = (-53 -184);
	DSLxEXTRA_DEFINITIONxMANDATORY = "false";
	diagnosistype = "AUXILIARY";
	label = "Ratio of Debts To Income";
	DSLxPOSITIONxWIDTH = "81";
	DSLxEXTRA_DEFINITIONxDIAGNOSIS_TYPE = "AUXILIARY";
	excludepolicy = "include whole CPT";
	DSLxTYPE = "CPT";
	DSLxPOSITIONxHEIGHT = "30";
	DSLxEXTRA_DEFINITIONxRANKED = "false";
	ismapvariable = "false";
	ID = "RatioDebInc";
}
node Assets
{
	states = ("High" "Medium" "Low" );
	position = (439 -298);
	DSLxEXTRA_DEFINITIONxMANDATORY = "false";
	diagnosistype = "AUXILIARY";
	label = "Assets";
	DSLxPOSITIONxWIDTH = "70";
	DSLxEXTRA_DEFINITIONxDIAGNOSIS_TYPE = "AUXILIARY";
	excludepolicy = "include whole CPT";
	DSLxTYPE = "CPT";
	DSLxPOSITIONxHEIGHT = "30";
	DSLxEXTRA_DEFINITIONxRANKED = "false";
	ismapvariable = "false";
	ID = "Worth";
}
node Reliability
{
	states = ("Reliable" "Unreliable" );
	position = (92 -404);
	DSLxEXTRA_DEFINITIONxMANDATORY = "false";
	diagnosistype = "AUXILIARY";
	label = "Reliability";
	DSLxPOSITIONxWIDTH = "70";
	DSLxEXTRA_DEFINITIONxDIAGNOSIS_TYPE = "AUXILIARY";
	excludepolicy = "include whole CPT";
	DSLxTYPE = "CPT";
	DSLxPOSITIONxHEIGHT = "30";
	DSLxEXTRA_DEFINITIONxRANKED = "false";
	ismapvariable = "false";
	ID = "Reliability";
}
node FutureIncome
{
	states = ("Promising" "Not_promising" );
	position = (449 -403);
	DSLxEXTRA_DEFINITIONxMANDATORY = "false";
	diagnosistype = "AUXILIARY";
	label = "Future Income";
	DSLxPOSITIONxWIDTH = "90";
	DSLxEXTRA_DEFINITIONxDIAGNOSIS_TYPE = "AUXILIARY";
	excludepolicy = "include whole CPT";
	DSLxTYPE = "CPT";
	DSLxPOSITIONxHEIGHT = "30";
	DSLxEXTRA_DEFINITIONxRANKED = "false";
	ismapvariable = "false";
	ID = "FutureIncome";
}
node CreditWorthiness
{
	states = ("Positive" "Negative" );
	position = (11 -482);
	DSLxEXTRA_DEFINITIONxMANDATORY = "false";
	diagnosistype = "AUXILIARY";
	label = "Credit Worthiness";
	DSLxPOSITIONxWIDTH = "100";
	DSLxEXTRA_DEFINITIONxDIAGNOSIS_TYPE = "AUXILIARY";
	excludepolicy = "include whole CPT";
	DSLxTYPE = "CPT";
	DSLxPOSITIONxHEIGHT = "30";
	DSLxEXTRA_DEFINITIONxRANKED = "false";
	ismapvariable = "false";
	ID = "CreditWorthiness";
}
node PaymentHistory
{
	states = ("Excellent" "Acceptable" "Unacceptable" );
	position = (81 -271);
	DSLxEXTRA_DEFINITIONxMANDATORY = "false";
	diagnosistype = "AUXILIARY";
	label = "Payment History";
	DSLxPOSITIONxWIDTH = "93";
	DSLxEXTRA_DEFINITIONxDIAGNOSIS_TYPE = "AUXILIARY";
	excludepolicy = "include whole CPT";
	DSLxTYPE = "CPT";
	DSLxPOSITIONxHEIGHT = "30";
	DSLxEXTRA_DEFINITIONxRANKED = "false";
	ismapvariable = "false";
	ID = "PaymentHistory";
}
node Income
{
	states = ("High" "Medium" "Low" );
	position = (279 -316);
	DSLxEXTRA_DEFINITIONxMANDATORY = "false";
	diagnosistype = "AUXILIARY";
	label = "Income";
	DSLxPOSITIONxWIDTH = "83";
	DSLxEXTRA_DEFINITIONxDIAGNOSIS_TYPE = "AUXILIARY";
	excludepolicy = "include whole CPT";
	DSLxTYPE = "CPT";
	DSLxPOSITIONxHEIGHT = "30";
	DSLxEXTRA_DEFINITIONxRANKED = "false";
	ismapvariable = "false";
	ID = "Profession";
}
node Age
{
	states = ("Between16and21" "Between22and64" "Over65" );
	position = (209 -152);
	DSLxEXTRA_DEFINITIONxMANDATORY = "false";
	diagnosistype = "AUXILIARY";
	label = "Age";
	DSLxPOSITIONxWIDTH = "70";
	DSLxEXTRA_DEFINITIONxDIAGNOSIS_TYPE = "AUXILIARY";
	excludepolicy = "include whole CPT";
	DSLxTYPE = "CPT";
	DSLxPOSITIONxHEIGHT = "30";
	DSLxEXTRA_DEFINITIONxRANKED = "false";
	ismapvariable = "false";
	ID = "Age";
}
potential ( DebtIncomeRatio | )
{
	data = (	0.5	0.5	);
}
potential ( Assets | Income )
{
	data = ((	0.4090909090909091	0.30909090909090914	0.2818181818181818	)
		(	0.24752475247524758	0.44554455445544555	0.30693069306930687	)
		(	0.24038461538461542	0.32692307692307687	0.43269230769230765	));
}
potential ( Reliability | PaymentHistory Age )
{
	data = (((	0.7	0.3	)
		(	0.9	0.1	)
		(	0.95	0.05	))
		((	0.4	0.6	)
		(	0.6	0.4	)
		(	0.8	0.2	))
		((	0.27083333333333337	0.7291666666666666	)
		(	0.3	0.7	)
		(	0.33962264150943394	0.660377358490566	)));
}
potential ( FutureIncome | Assets Income )
{
	data = (((	0.894871794871795	0.105128205128205	)
		(	0.6153846153846154	0.3846153846153846	)
		(	0.5153846153846154	0.4846153846153846	))
		((	0.609375	0.390625	)
		(	0.5833333333333334	0.4166666666666667	)
		(	0.41860465116279066	0.5813953488372093	))
		((	0.47916666666666663	0.5208333333333334	)
		(	0.37499999999999994	0.625	)
		(	0.3055555555555555	0.6944444444444445	)));
}
potential ( CreditWorthiness | Reliability FutureIncome DebtIncomeRatio )
{
	data = ((((	0.99	0.01	)
		(	0.8	0.2	))
		((	0.85	0.15	)
		(	0.65	0.35	)))
		(((	0.6	0.4	)
		(	0.5	0.5	))
		((	0.2	0.8	)
		(	0.1	0.9	))));
}
potential ( PaymentHistory | Age DebtIncomeRatio )
{
	data = (((	0.2	0.2666666666666666	0.5333333333333333	)
		(	0.1	0.2666666666666666	0.6333333333333334	))
		((	0.3	0.6	0.1	)
		(	0.2	0.6	0.2	))
		((	0.8	0.1	0.1	)
		(	0.6	0.1	0.3	)));
}
potential ( Income | )
{
	data = (	0.3333333333333333	0.3333333333333333	0.3333333333333333	);
}
potential ( Age | )
{
	data = (	0.3333333333333333	0.3333333333333333	0.3333333333333333	);
}
